digraph Tree {
node [shape=box] ;
0 [label="X[2] <= 79.0\ngini = 0.444\nsamples = 9\nvalue = [3, 6]"] ;
1 [label="gini = 0.0\nsamples = 4\nvalue = [0, 4]"] ;
0 -> 1 [labeldistance=2.5, labelangle=45, headlabel="True"] ;
2 [label="X[1] <= 70.5\ngini = 0.48\nsamples = 5\nvalue = [3, 2]"] ;
0 -> 2 [labeldistance=2.5, labelangle=-45, headlabel="False"] ;
3 [label="gini = 0.0\nsamples = 2\nvalue = [0, 2]"] ;
2 -> 3 ;
4 [label="gini = 0.0\nsamples = 3\nvalue = [3, 0]"] ;
2 -> 4 ;
}